{"doc":"yuheng","tokens":[26,24,20,7,4,13,6,26],"n":7,"gpt_calls":[{"token_id":26,"pos_id":0,"tok_emb":[0.08213648227415588,-0.036011968656176764,-0.12047466462352517,-0.03320518865639341,-0.015841795974495948,0.09642132447539005,0.0711127878668027,-0.04524127228390954,-0.07532538815609155,-0.05805706717604606,0.10729427645110234,-0.012203907528515221,0.01981370014442571,-0.0023562591760690654,0.19179631462034316,0.15064759820129633],"pos_emb":[-0.02223609248240166,-0.06955846384028579,-0.18050460245283062,0.05687695766770791,0.047400660094667646,-0.027228818329571906,-0.06230811240334903,0.07152032540868632,0.11822576631407689,-0.10224950084969167,0.04580701264968371,0.10446673348803803,0.03989979579720061,0.024080426158084624,-0.11147360119730007,0.07657175167226077],"x_emb_sum":[0.059900389791754216,-0.10557043249646256,-0.3009792670763558,0.0236717690113145,0.0315588641201717,0.06919250614581815,0.00880467546345367,0.026279053124776776,0.042900378157985336,-0.16030656802573773,0.15310128910078605,0.09226282595952282,0.059713495941626324,0.02172416698201556,0.08032271342304309,0.2272193498735571],"x_emb_norm":[0.4951007610529291,-0.872581992461101,-2.487714432388714,0.19565667091175248,0.26084667726175415,0.5719038318623736,0.07277417622714774,0.21720692047346873,0.354588842398499,-1.3249981194989076,1.2654435975376286,0.7625892837802841,0.4935560083767592,0.17955895852145892,0.6638994618205194,1.8780591151317676],"layers":[{"x_ln_attn":[0.4952674883750517,-0.8728758382201462,-2.4885521809808107,0.1957225591417103,0.26093451850823485,0.5720964229506912,0.07279868324567106,0.2172800658431507,0.3547082517244349,-1.3254443183450004,1.2658697411409345,0.7628460890190676,0.49372221549673856,0.17961942577716206,0.6641230328350187,1.8786915596596006],"q":[0.03473488313647202,0.3948451339206511,-0.3226961932265774,0.21626673432421212,0.0825028476090986,-0.2677486197925126,0.3428793779320541,-0.5496413159542635,0.3618103177384799,-0.5883799204544216,0.36552438904703705,0.18162337231471307,-0.15611967970166818,-0.5805415129350182,-0.2904406694008267,-0.6611795690219482],"k":[-0.06774473275776234,-0.04662488139762622,0.223382693617192,-0.44678411725968564,0.05394602526162281,-0.05548851464848972,0.3299344465284767,-0.32464640065516154,-0.15203731856193706,0.2724703476801502,0.3021300002930522,-0.12967689436712262,-0.21702501439607447,-0.08291758949897383,-0.33692200540285766,0.2109643717491393],"v":[-0.20056698275979834,-0.11626502009152277,0.6519530451441489,0.14354339931780066,0.1063692909627337,0.0782234418269098,-0.5051732574467376,0.018457707461170432,0.1245251885076289,-0.25169960029959615,-0.4439973148227299,0.004635125877975543,0.6564651870364275,-0.49599133894726527,-0.5833325847962638,0.07693055915727019],"heads":[{"attn_logits":[-0.0947359998827887],"attn_weights":[1.0],"head_out":[-0.20056698275979834,-0.11626502009152277,0.6519530451441489,0.14354339931780066]},{"attn_logits":[0.15543723328635234],"attn_weights":[1.0],"head_out":[0.1063692909627337,0.0782234418269098,-0.5051732574467376,0.018457707461170432]},{"attn_logits":[-0.06422061156379645],"attn_weights":[1.0],"head_out":[0.1245251885076289,-0.25169960029959615,-0.4439973148227299,0.004635125877975543]},{"attn_logits":[0.02019474949220855],"attn_weights":[1.0],"head_out":[0.6564651870364275,-0.49599133894726527,-0.5833325847962638,0.07693055915727019]}],"x_attn":[-0.20056698275979834,-0.11626502009152277,0.6519530451441489,0.14354339931780066,0.1063692909627337,0.0782234418269098,-0.5051732574467376,0.018457707461170432,0.1245251885076289,-0.25169960029959615,-0.4439973148227299,0.004635125877975543,0.6564651870364275,-0.49599133894726527,-0.5833325847962638,0.07693055915727019],"x_wo":[0.11868211370226447,-0.01487341256748363,-0.0681770587223355,-0.09565363029877383,-0.14302075899515576,-0.1614452413493057,-0.02321074455560481,0.1961693111123592,-0.07756059268399351,-0.08503412681262217,-0.0638644059594152,0.10028345204880239,-0.0019664398073366294,0.015447497297995683,-0.14375742603266903,0.10632944157262929],"x_after_attn":[0.6137828747551936,-0.8874554050285847,-2.5558914911110495,0.10000304061297866,0.11782591826659838,0.4104585905130679,0.04956343167154293,0.4133762315858279,0.2770282497145055,-1.4100322463115298,1.2015791915782135,0.8628727358290865,0.4915895685694226,0.1950064558194546,0.5201420357878503,1.9843885567043968],"x_ln_mlp":[0.5989184749634757,-0.8659632903407528,-2.4939937182817284,0.09758119856231605,0.11497244739444422,0.4005182340152351,0.04836312013839834,0.4033652165780595,0.27031926706490217,-1.375884530742326,1.17247972624668,0.8419759564592605,0.4796844076710048,0.1902838510670453,0.5075454002569024,1.9363312614259502],"fc1":[0.4231422526108191,-0.01267634973613499,0.5658881338821223,0.028823449071843643,-0.3289974412344026,-0.035474109626523455,-0.5792442895655204,-0.5174773478865343,0.19945562711375425,0.442235916147922,0.216405493538922,0.13959428486218767,0.4756038993314676,0.15769289898234698,-0.15210537775765215,-0.4817893450528806,0.0274241239065406,-0.019407215791928945,0.17515559742926962,0.008276477591419834,-0.0045719181768304334,0.15968754361296814,-0.21123192800553037,0.05155787518554761,-0.0786494721903515,0.08037495997853689,0.33995610232340656,-0.17969634109649826,0.052635327998499584,-0.18807424985432963,-0.3581195349133563,-0.20248501756436577,-0.08171989209584954,0.5764384917335332,0.3072917735958496,0.023983855985148614,-0.14969102273534662,-0.051426954079213966,0.25175727333351544,-0.12241564628902722,-0.2283416894949739,-0.3594317315602998,-0.2164655883485047,0.33756992743698283,-0.04513177143789106,-0.0932527135780836,-0.5890841506152912,0.07276147174955719,0.09539333541798442,-0.6375496931728241,-0.3207279744540444,-0.25968455831295534,0.04969436761249414,0.26230882077486445,0.2834115027683982,0.023372028805543565,0.06315332672520355,0.5893805061202159,-0.2984583397266812,0.23191714519580364,-0.6606128232710985,-0.1320679115891466,0.10116989532717274,-0.5431866978189785],"relu":[0.4231422526108191,0,0.5658881338821223,0.028823449071843643,0,0,0,0,0.19945562711375425,0.442235916147922,0.216405493538922,0.13959428486218767,0.4756038993314676,0.15769289898234698,0,0,0.0274241239065406,0,0.17515559742926962,0.008276477591419834,0,0.15968754361296814,0,0.05155787518554761,0,0.08037495997853689,0.33995610232340656,0,0.052635327998499584,0,0,0,0,0.5764384917335332,0.3072917735958496,0.023983855985148614,0,0,0.25175727333351544,0,0,0,0,0.33756992743698283,0,0,0,0.07276147174955719,0.09539333541798442,0,0,0,0.04969436761249414,0.26230882077486445,0.2834115027683982,0.023372028805543565,0.06315332672520355,0.5893805061202159,0,0.23191714519580364,0,0,0.10116989532717274,0],"fc2":[-0.1337503000983855,-0.12173508778303233,0.04032912139731563,0.17871628537502332,0.30769907177145095,-0.04588688084354837,0.049257176052566076,-0.004131250781156867,-0.12440487872425639,-0.037024074458138684,-0.047582932538909835,0.1190853119487781,-0.21737559756254332,0.007001559940961917,0.030337317664038486,0.009259735461884494],"x_after_mlp":[0.48003257465680804,-1.009190492811617,-2.515562369713734,0.278719325988002,0.42552499003804933,0.3645717096695195,0.098820607724109,0.40924498080467103,0.15262337099024914,-1.4470563207696685,1.1539962590393036,0.9819580477778647,0.2742139710068793,0.20200801576041652,0.5504793534518888,1.9936482921662813]}],"logits":[0.004672150870404124,0.23893370562835137,0.5427393807458798,-0.4774374941353985,0.3506727149458194,-0.007489175923170041,-0.0753996659172516,0.17804521053652556,0.03749227900355962,0.43885563636769087,0.45944460664209064,0.3839562116931216,-0.3505202376471032,0.08480164237680178,0.6743234081198664,-0.09427786135225498,0.022368188896042585,-0.5364918679753163,0.551658883365332,-0.06448593156812066,0.3059985124584071,-0.1518428311150492,-0.06835113212479513,0.3685106199964406,-0.1678910280071813,0.47675347918273314,0.03726284503597272]},{"token_id":24,"pos_id":1,"tok_emb":[-0.0291914028145468,-0.025627074130916642,0.04066887602823657,-0.003619274149736821,-0.05804686963329994,-0.030778772648416275,0.00014315662207329166,0.04589802208791166,-0.09488459300810359,0.13348404499103125,0.05229590347436797,0.027117646186325454,0.049150854502792836,-0.026988240452583346,0.1022537706340269,0.03422097594847025],"pos_emb":[-0.04936297000126024,0.058443996500918034,-0.00919285762764423,0.16256312623608313,-0.11675240352301287,0.017432226123103946,0.1373055769358279,0.07889400896453631,-0.03638234319128401,-0.0527538264406614,0.00428189034339168,-0.006857888978762727,0.03977773991211138,-0.08676910277931388,0.08041514314370245,-0.022968310332662105],"x_emb_sum":[-0.07855437281580704,0.03281692237000139,0.031476018400592345,0.15894385208634632,-0.17479927315631283,-0.01334654652531233,0.1374487335579012,0.12479203105244797,-0.1312669361993876,0.08073021855036985,0.05657779381775965,0.020259757207562727,0.08892859441490422,-0.11375734323189722,0.18266891377772934,0.011252665615808143],"x_emb_norm":[-0.7394617591880336,0.3089179924300189,0.29629556069797014,1.4961980633653762,-1.6454510856580473,-0.12563604569580952,1.2938564547286522,1.1747141693953176,-1.2356648788072344,0.759943810752168,0.5325879826646616,0.19071268942029124,0.8371181961105525,-1.0708405163396435,1.7195309629391664,0.10592555975630953],"layers":[{"x_ln_attn":[-0.7397858994292414,0.3090534054535262,0.29642544072668037,1.4968539160786882,-1.6461723628643041,-0.1256911177771582,1.2944236117697203,1.1752291008701192,-1.2362065277929892,0.7602769292225431,0.5328214405751218,0.1907962876001592,0.8374851436783411,-1.0713099151948902,1.7202847127770262,0.10597199182133908],"q":[0.13240103124656963,0.5514612893688341,0.06719953913182676,0.01747414006554679,-0.18937734714311819,0.46274223553899835,-0.5891189472294578,0.234320606110307,0.2756404557538708,0.27462500683049706,0.21324532649154837,0.14198371826017572,-0.30816748042248215,0.19775858968548127,-0.19602438597051994,-0.23487611062284536],"k":[0.1275505323678607,0.4892183139363175,-0.09926337243693904,0.6653949143991678,0.30905276572313994,-0.22638779586911076,0.24122995467681796,0.16301216716442368,0.1279740477046675,-0.047220542188396684,0.22710163060902905,0.6032706630313855,0.7495798764502146,-0.16686402722061694,-0.207371117760616,-0.1800465990842837],"v":[-0.3958612280505596,-0.3017318415803098,-0.3902956008283306,-0.18076989824043577,0.3534789702000398,0.10172306461709593,-0.7586591457550902,-0.3912515051792628,-0.2128493917097421,-0.3677050887337342,-0.19060962546177332,0.07782269431729774,-0.010426533376950677,0.20335352242666965,0.009401691770029509,-0.1509413208896513],"heads":[{"attn_logits":[-0.013738621936905492,0.1458147676302014],"attn_weights":[0.4601960584896766,0.5398039415103235],"head_out":[-0.30598758612203525,-0.21638074135056157,0.08934311801440675,-0.03152219698834573]},{"attn_logits":[-0.15316750481738972,-0.13360140739260246],"attn_weights":[0.49510863169056896,0.5048913683094312],"head_out":[0.23113283503536183,0.09008819853220237,-0.6331560944418735,-0.1884009375178376]},{"attn_logits":[0.039467669116733904,0.0781949281667085],"attn_weights":[0.4903193951220087,0.5096806048779913],"head_out":[-0.047428091608019134,-0.31082534781387444,-0.314850524040601,0.041937410029678664]},{"attn_logits":[0.03348841221413796,-0.09052824782130732],"attn_weights":[0.5309644886846758,0.46903551131532417],"head_out":[0.3436692879603825,-0.16797376430699723,-0.3053191603128737,-0.029949444614921834]}],"x_attn":[-0.30598758612203525,-0.21638074135056157,0.08934311801440675,-0.03152219698834573,0.23113283503536183,0.09008819853220237,-0.6331560944418735,-0.1884009375178376,-0.047428091608019134,-0.31082534781387444,-0.314850524040601,0.041937410029678664,0.3436692879603825,-0.16797376430699723,-0.3053191603128737,-0.029949444614921834],"x_wo":[0.09675200778136787,0.01996744678896882,-0.0058540130226544945,-0.08073225169175398,-0.041598816996332645,-0.05765726065723908,0.034573884420209616,0.13952861261704305,-0.024656923734144024,-0.07054220044499292,-0.03498987390863701,0.06994951008541107,0.02300851168891296,0.03256510428492248,-0.007111930824287221,0.043617965330320224],"x_after_attn":[-0.6427097514066658,0.3288854392189877,0.29044154767531566,1.4154658116736223,-1.68704990265438,-0.1832933063530486,1.3284303391488619,1.3142427820123606,-1.2603218025413785,0.6894016103071751,0.49759810875602456,0.2606621995057023,0.8601267077994654,-1.038275412054721,1.7124190321148791,0.14954352508662977],"x_ln_mlp":[-0.6400588654334645,0.32752893607630534,0.28924360813404953,1.4096276577363291,-1.680091587624541,-0.18253730466841642,1.3229511670268934,1.3088221271232874,-1.25512354721576,0.6865581416112888,0.49554574243684885,0.25958708625761306,0.856579075575291,-1.0339929972942297,1.7053560809420658,0.1489267259293623],"fc1":[0.40393251422533993,-0.5951570653200446,0.07821169401273978,-0.13886643064580528,0.16013754453254503,0.017471125581848154,-0.08976414753876873,0.20993176184471668,0.5487667438778372,0.025145731354691666,-0.45853425822507843,0.00828354690526718,-0.11830463502898159,-0.6545834964613175,-0.16263196595643795,0.03370239122087788,0.0854839674603369,-0.14651640526735496,0.3154238781246748,-0.0896082636271641,-1.1133151779598012,0.3259288898907366,-0.19275650117285542,0.2756831826928255,-0.044135811319666755,0.394618853125723,0.4459316879022172,-0.5530951874312104,-0.181349599535225,-0.0775877222305391,0.46333959122958507,0.07652244152344667,-0.18203094173329357,0.23746133708579314,-0.13593192942319685,0.22749348791044088,-0.48317218199567163,-0.14972020371625067,0.36406639075668246,-0.16646513487440867,-0.01066656315311319,-0.028527240328120727,-0.2982293993386927,0.09085948970527316,-0.45233363181807135,-0.40654013302287745,-0.43827025429222627,-0.08088977481369485,-0.1739422601195394,-0.00045548537978592693,-0.004241585399402548,-0.00664138269098093,0.5072063987849945,0.15561306562540386,-0.05707000354092372,-0.2622249216398981,0.4906520868387231,0.38149452760386376,0.12556004090801925,0.5259444812385207,0.01899875642704808,0.42181490639785985,0.42060769848642676,0.2906449996812189],"relu":[0.40393251422533993,0,0.07821169401273978,0,0.16013754453254503,0.017471125581848154,0,0.20993176184471668,0.5487667438778372,0.025145731354691666,0,0.00828354690526718,0,0,0,0.03370239122087788,0.0854839674603369,0,0.3154238781246748,0,0,0.3259288898907366,0,0.2756831826928255,0,0.394618853125723,0.4459316879022172,0,0,0,0.46333959122958507,0.07652244152344667,0,0.23746133708579314,0,0.22749348791044088,0,0,0.36406639075668246,0,0,0,0,0.09085948970527316,0,0,0,0,0,0,0,0,0.5072063987849945,0.15561306562540386,0,0,0.4906520868387231,0.38149452760386376,0.12556004090801925,0.5259444812385207,0.01899875642704808,0.42181490639785985,0.42060769848642676,0.2906449996812189],"fc2":[-0.06705665212485827,0.04503956798288041,-0.14899235165844657,-0.032777916993075557,0.05589369174291134,-0.30440572644205394,0.17554381827175067,-0.07522719967740506,0.06448355331268407,-0.22107436776883357,-0.10576524499698234,0.050685381419303746,-0.10574514818475911,-0.08526928975057298,0.13635853664007128,-0.031181277976364316],"x_after_mlp":[-0.709766403531524,0.3739250072018681,0.1414491960168691,1.3826878946805468,-1.6311562109114686,-0.4876990327951025,1.5039741574206125,1.2390155823349556,-1.1958382492286943,0.46832724253834146,0.39183286375904225,0.31134758092500603,0.7543815596147063,-1.123544701805294,1.8487775687549504,0.11836224711026545]}],"logits":[0.19521261024277448,0.07566523210872092,-0.06104638909015919,0.3726505719453287,0.0751466542592292,-0.3990124492539808,-0.15227323276194601,-0.22939317596380224,0.09538657751149361,-0.36057469165283057,-0.22877845406603495,-0.21651436491570603,-0.8458132530155648,0.15005044547814933,0.0656284636106123,-0.02430263330714824,0.5105732530308948,0.26290629346127803,-0.3782350171498901,-0.15966492518515601,0.060150815704338355,0.1864965771980141,-0.10037857565079406,0.07885705664265462,-0.06345000781815825,-0.22684144537445125,-0.19828276042666196]},{"token_id":20,"pos_id":2,"tok_emb":[0.12262492451711213,0.15682072119356863,0.007630413768131056,-0.061304297208181154,0.14783335716188734,-0.11419789750538346,-0.020109930107152424,0.05890119750997488,0.015669634028223623,0.02335150739470954,-0.013286742884698536,0.02858393843130675,0.0845261906919612,0.034319136708107115,0.03580214497574983,-0.0035273683488553356],"pos_emb":[0.009793531403153269,0.020823390754821723,-0.02660481662567622,-0.08264682686959356,0.058392370547501946,-0.15299774736121477,0.11404491016646154,0.0024584781923605572,0.031517682456768704,-0.07577938771043267,-0.09689812174524817,-0.0699412455946543,0.14408279848957886,-0.010633455310374375,0.03489011350860575,0.025446616761794827],"x_emb_sum":[0.1324184559202654,0.17764411194839036,-0.01897440285754516,-0.14395112407777472,0.2062257277093893,-0.26719564486659825,0.09393498005930911,0.061359675702335435,0.04718731648499233,-0.05242788031572314,-0.11018486462994671,-0.04135730716334755,0.22860898918154005,0.02368568139773274,0.07069225848435558,0.02191924841293949],"x_emb_norm":[1.011940105257138,1.3575539760983841,-0.145002138043486,-1.1000726042211253,1.5759743092807919,-2.041905617396451,0.7178498869204598,0.46890983781107903,0.36060485435185635,-0.4006531744868511,-0.8420312919107801,-0.3160519994979399,1.7470269001958005,0.18100566692260114,0.540229313160082,0.16750660919580132],"layers":[{"x_ln_attn":[1.0122306569723836,1.357943761654115,-0.1450437715549003,-1.1003884608418786,1.5764268084320419,-2.0424918963436163,0.7180559984431182,0.46904447281266043,0.36070839245496494,-0.40076821140105284,-0.8422730588245373,-0.31614274543249066,1.747528512553879,0.1810576378907645,0.5403844256541409,0.16755470426819147],"q":[-0.03161080629133996,-0.0303017401390093,0.08219395627875946,0.1255737306226355,0.05872964249531089,-0.607316924173808,-0.2262007971446517,0.14968157940227847,-0.0700155480057473,0.360206874566202,-0.13636079684562794,0.2637141804064914,0.5713768743014227,0.1319056514530357,0.34424331025610844,0.19524019694938666],"k":[-0.3229529722378197,-0.3614136178560694,0.5761580759520877,-0.010446285685502293,-0.4949752101373854,0.02107281346897919,0.01842945488713974,-0.5997884631940998,0.5306607239871376,-0.5935097357166057,-0.33937973250159714,-0.3515953826438636,0.2144896111622203,0.12121407239674022,0.10999658504701017,0.2770093729030929],"v":[-0.2976127300298848,-0.20504613314209133,-0.04245948067482633,0.49034900404881976,0.08503903233152729,0.4296029732858109,0.5878753667112733,-0.24984391075854392,-0.2842370035788996,0.1226259226250417,0.0315823387410991,0.13986972957336558,-0.14932967449422702,0.06463353181052867,0.2652265679655594,-0.4155961704179268],"heads":[{"attn_logits":[-0.017094680185024767,0.02827056552654421,0.03360259900868887],"attn_weights":[0.3227457276915381,0.33772435267914963,0.3395299196293123],"head_out":[-0.2994725401035628,-0.2090455265009432,0.06418646677146865,0.15176577993602278]},{"attn_logits":[-0.043178837993299087,0.06273660445035906,-0.06790681762982476],"attn_weights":[0.32390729422794245,0.36009676549274866,0.3159959402793089],"head_out":[0.18861241204546936,0.19772008542221392,-0.25105377816281593,-0.21385947693102914]},{"attn_logits":[0.016697172509828197,0.05107696607612702,-0.14869169286681827],"attn_weights":[0.34691606137627734,0.3590503560498488,0.29403358257387385],"head_out":[-0.11679908640153838,-0.18328713767124005,-0.21318198540241556,0.07067666339705042]},{"attn_logits":[-0.10486739698951421,0.14987192256802556,0.11524608892832036],"attn_weights":[0.28277796638320746,0.36481899927127975,0.35240303434551284],"head_out":[0.1292058627094918,-0.04329114089070693,-0.06805703893063868,-0.17976934608208406]}],"x_attn":[-0.2994725401035628,-0.2090455265009432,0.06418646677146865,0.15176577993602278,0.18861241204546936,0.19772008542221392,-0.25105377816281593,-0.21385947693102914,-0.11679908640153838,-0.18328713767124005,-0.21318198540241556,0.07067666339705042,0.1292058627094918,-0.04329114089070693,-0.06805703893063868,-0.17976934608208406],"x_wo":[0.04538202156019276,0.012030961449219956,0.03139578748239537,-0.008416907483029718,-0.002870898544052246,-0.03156771831193244,-0.025093621447132067,0.10472540196542966,-0.000877828677657678,0.006371087125179236,-0.010969659052279434,0.03796329206656504,0.03786331479978599,0.028349138340630197,-0.010503165990219105,0.025562857567456593],"x_after_attn":[1.0573221268173307,1.3695849375476041,-0.11360635056109063,-1.108489511704155,1.5731034107367396,-2.0734733357083837,0.6927562654733277,0.5736352397765087,0.3597270256741987,-0.39428208736167186,-0.8530009509630595,-0.2780887074313748,1.7848902149955865,0.20935480526323133,0.529726147169863,0.19306946676325792],"x_ln_mlp":[1.0425769415446842,1.3504850027798014,-0.11202202101318368,-1.0930307571691835,1.5511652514416463,-2.0445571258632884,0.6830952367063059,0.5656354470218783,0.3547103505223123,-0.38878351480712425,-0.8411051845351363,-0.2742105425757415,1.7599985228197443,0.20643518851349266,0.5223387011061958,0.19037696181541894],"fc1":[0.32033473989365674,0.1423396992859054,0.15243232060123713,-0.030272003570122292,0.13822494940430766,0.5310676054989482,0.38014013537912134,0.17679947942353508,0.26796280578586507,-0.37505138530561644,0.27208055045935803,0.15266947352650342,0.0664180501381735,0.12360844221532509,-0.43104425951780667,-0.38787083850843335,0.21850776763940985,0.23106154565200743,0.41379618188883543,0.30083023621207217,-0.07748977190876553,-0.8175646315806092,0.7383748820619547,0.3295288366836727,-0.11015705163521387,0.047232358254684165,0.3509705267841756,0.24437758387124614,-0.007544034780046104,-0.06323929866304237,-0.035656314697572786,-0.38956937502587596,-0.2279844084311423,-0.30733434561555534,-0.8166898384387867,-0.09067493188493082,0.39180018345117856,-0.33962743722011035,-0.5039351812256002,0.1941232051867181,0.06946295479792547,0.16506144827267186,-0.027016566169535995,0.29606576737171286,0.89334792874637,1.1160665365051379,0.6819487794178076,0.8524698165201934,0.04129476745216893,-0.027510926492625126,-0.13544693856518408,-0.11899449944966381,0.4352742468816942,-0.2603041409448432,-0.3253503912648245,0.27728243862046126,-0.31714026394560885,-0.19011487300650334,-0.27168536278052874,-0.2960383407224092,0.10128555387741263,-0.3175462459166668,-0.28569280359111565,-0.21262293589870468],"relu":[0.32033473989365674,0.1423396992859054,0.15243232060123713,0,0.13822494940430766,0.5310676054989482,0.38014013537912134,0.17679947942353508,0.26796280578586507,0,0.27208055045935803,0.15266947352650342,0.0664180501381735,0.12360844221532509,0,0,0.21850776763940985,0.23106154565200743,0.41379618188883543,0.30083023621207217,0,0,0.7383748820619547,0.3295288366836727,0,0.047232358254684165,0.3509705267841756,0.24437758387124614,0,0,0,0,0,0,0,0,0.39180018345117856,0,0,0.1941232051867181,0.06946295479792547,0.16506144827267186,0,0.29606576737171286,0.89334792874637,1.1160665365051379,0.6819487794178076,0.8524698165201934,0.04129476745216893,0,0,0,0.4352742468816942,0,0,0.27728243862046126,0,0,0,0,0.10128555387741263,0,0,0],"fc2":[0.11173371211278822,-0.03133371333949131,-0.07423114167647843,-0.227670103943145,-0.012695442825250687,-0.06104410026627037,-0.29588676825170135,0.04795868240879999,-0.062374399061720126,-0.13887997431815965,0.1841447075775325,-0.32904508448987374,0.014646726250285739,0.04934687680377799,-0.2319408367888562,0.14473262571597934],"x_after_mlp":[1.1690558389301189,1.3382512242081128,-0.18783749223756907,-1.3361596156473001,1.560407967911489,-2.134517435974654,0.39686949722162634,0.6215939221853086,0.2973526266124785,-0.5331620616798315,-0.668856243385527,-0.6071337919212485,1.7995369412458724,0.25870168206700933,0.2977853103810068,0.33780209247923726]}],"logits":[-0.09746824566260824,-0.02820412144776717,0.37927927034347536,-0.6324627400116208,0.6305167396139564,-0.0989968577093512,0.5120021845325005,-0.23378020950369743,0.36479189592300376,-0.014990560054238572,-0.11650305747542791,-0.23452377451261008,-0.31538803530663445,0.10378333861802554,0.10647640407538095,-0.47782933320085297,0.6634304675628471,-0.14423463457493482,-0.228136875353576,0.11269323390875685,-0.4757806792055489,0.07667540344717179,-0.5212665933465601,0.20364349234478293,-0.0472408402451498,-0.02461198890003937,-0.1168813067756959]},{"token_id":7,"pos_id":3,"tok_emb":[0.07458316179794375,-0.01924162182017589,-0.07682514213638358,0.1346580949515744,-0.014928378188359166,0.13513335642875057,-0.03613038421233241,0.029856506490860368,0.03792626240450984,-0.1578248005348805,-0.11096539458363873,-0.0076094663428186654,-0.05850919864282334,0.03383472365754606,-0.014555065067757465,0.1390336767455051],"pos_emb":[0.05729298534956085,0.06989548162011511,0.046253432765086554,0.08228862646076761,0.0569399833045254,0.04790622376288917,0.01259255462609367,-0.04575535105308243,0.013109195097108901,0.1005593576927742,0.04284031321156787,0.09251667400637477,-0.020964159296498405,0.09690526186741291,-0.15784475394262493,0.029040321874994234],"x_emb_sum":[0.1318761471475046,0.05065385979993922,-0.03057170937129703,0.216946721412342,0.04201160511616623,0.18303958019163974,-0.02353782958623874,-0.01589884456222206,0.05103545750161874,-0.05726544284210629,-0.06812508137207085,0.0849072076635561,-0.07947335793932175,0.13073998552495897,-0.1723998190103824,0.16807399862049932],"x_emb_norm":[1.169904628244491,0.44936242300219337,-0.2712088960774788,1.9245859008823016,0.3726949287531777,1.6237875965439894,-0.20880967762100622,-0.141042426848268,0.45274766686151685,-0.5080153467367825,-0.604353779820192,0.7532320087104547,-0.7050270370072979,1.1598254685981055,-1.5293997476523593,1.4910243673842503],"layers":[{"x_ln_attn":[1.1703593945268642,0.4495370995301883,-0.2713143206210168,1.9253340274852073,0.3728398030302056,1.6244187965844168,-0.20889084628939397,-0.14109725297560025,0.452923659304269,-0.5082128228771844,-0.604588704714967,0.7535248056719299,-0.705301095692811,1.1602763169013108,-1.5299942571710934,1.4916039595938313],"q":[0.2165320496150787,0.07459332626949437,-0.2933447862796106,0.17866618188237,-0.08474197564917962,-0.07496229894866409,0.3810366810245597,-0.12889117901497624,-0.12549286260724474,-0.5510200285978764,0.4079752786740346,-0.398144357385263,0.22830289263905457,-0.38586066778119255,-0.06774484118891307,0.028554685482591616],"k":[0.24879457571015712,-0.4910626156023691,-0.12848555192749253,0.5084897824179067,0.22302881090508606,-0.10521491597756831,0.2440663726421025,0.3325586800499217,-0.25275081092399465,0.4978343527603708,0.35069937080960834,0.18396316737234675,-0.7833341277607164,-0.03793572322867288,-0.35869175619098637,0.28013670926443013],"v":[-0.14966874577363543,0.24185291648488752,0.36048938146221055,0.6555507261252419,-0.17760533670719336,0.4595989830656477,-0.61996433292318,0.43864484491536276,-0.37334012255691956,-0.2680792768213127,-0.12970465032147202,-0.14371026503397216,0.1778041486861505,-0.17043710088574465,0.01317206134102867,0.00977560063500868],"heads":[{"attn_logits":[-0.08175008584960285,0.10605658054206199,-0.1338840392773154,0.07289125011412396],"attn_weights":[0.23131863930590738,0.2791091202495081,0.21956804786928802,0.2700041925752965],"head_out":[-0.2626407956538485,-0.0908306528408617,0.1298847285979956,0.26741615463930124]},{"attn_logits":[0.08357461883425243,0.0308437192795991,0.0623476255827073,0.01956080507026811],"attn_weights":[0.2586904460526787,0.24540287759550722,0.2532570965507446,0.24264957980106952],"head_out":[0.09270235388138262,0.26552029163465796,-0.3184111091536884,-0.04807716878729866]},{"attn_logits":[0.021917337199768093,-0.06878866225290176,0.1309843974800058,-0.08638275001251614],"attn_weights":[0.25471985808225156,0.23263212566616817,0.28407304499691366,0.2285749712546667],"head_out":[-0.1838768469849776,-0.17609439663582002,-0.1781124009486701,0.026169367693592814]},{"attn_logits":[0.005647973462810244,0.1222123342302069,0.0013275350417611088,-0.0659504060443897],"attn_weights":[0.24689996123228208,0.2774241604338761,0.24583554617917808,0.22984033215466382],"head_out":[0.16334467946375533,-0.08932916241206416,-0.07318694697494008,-0.12280210139678807]}],"x_attn":[-0.2626407956538485,-0.0908306528408617,0.1298847285979956,0.26741615463930124,0.09270235388138262,0.26552029163465796,-0.3184111091536884,-0.04807716878729866,-0.1838768469849776,-0.17609439663582002,-0.1781124009486701,0.026169367693592814,0.16334467946375533,-0.08932916241206416,-0.07318694697494008,-0.12280210139678807],"x_wo":[0.036499824958311125,0.021246548532271713,-0.005246988231158415,0.0010618484246672326,-0.0029120205265587376,-0.030738797046093287,-0.035269351912610006,0.13252411023081645,-0.031064668692031366,-0.012469625946056714,-0.0017538884649210811,0.04016389862417689,0.014612713164830976,0.012740414549412053,-0.03551805151420131,0.019127381139385963],"x_after_attn":[1.206404453202802,0.47060897153446507,-0.2764558843086372,1.9256477493069688,0.36978290822661897,1.5930487994978961,-0.2440790295336162,-0.00851831661745156,0.4216829981694855,-0.5204849726828392,-0.6061076682851131,0.7933959073346316,-0.6904143238424669,1.1725658831475176,-1.5649177991665606,1.5101517485236362],"x_ln_mlp":[1.1981042799377954,0.467371138655589,-0.2745538424736619,1.9123991162103444,0.3672387679090243,1.5820884776751944,-0.2423997434284421,-0.008459709817996099,0.4187817804738594,-0.5169039883424461,-0.6019375919473976,0.7879372707379731,-0.6856642099836188,1.1644985223474795,-1.5541510212057439,1.4997617660132752],"fc1":[-0.10108335069069295,-0.0878288395313894,0.1926796206401843,0.39219181542021936,-0.3014320747506159,-0.34464987013137777,-0.15956262108247515,-0.24319660932792941,-0.0846511962965239,0.23254369848437728,-0.15777058900492025,-0.13618397864516127,0.2399222143750335,0.04481361952011308,0.3532808832995854,-0.18698908198350842,-0.08085061780620889,-0.15919906576428547,-0.48144790313352415,-0.19692430838114514,0.7482604948936228,-0.22545097688851776,-0.24109631661274958,-0.04022027081743661,-0.20089230329113372,-0.2244490803651155,-0.05002650691267857,0.23305578486591808,0.09893179707393451,-0.28766930391366025,-0.21409591216968626,0.06588166707032152,0.45222928192775336,0.414652244659839,0.6547263455191629,-0.21802591216078762,0.152864745158601,0.08455049472423612,0.19505073610588736,-0.4194663282694611,0.4161234310080076,0.004493972130156579,0.5009773852035837,0.1715102186000608,0.6163950355445852,-0.07549390554448354,-0.5856822133836759,-0.5428464733527524,0.1603347903387772,-0.3540053052309845,-0.6518319516127613,-0.44499847275491616,-0.5393713343750011,0.003269835948803264,-0.2522192973356617,0.24445101087796908,0.3484428883052553,0.16552606535356867,-0.5157722260242955,-0.701190037244365,-0.35922323195379274,0.06680290988251741,0.3066525730392705,-0.11751906722416985],"relu":[0,0,0.1926796206401843,0.39219181542021936,0,0,0,0,0,0.23254369848437728,0,0,0.2399222143750335,0.04481361952011308,0.3532808832995854,0,0,0,0,0,0.7482604948936228,0,0,0,0,0,0,0.23305578486591808,0.09893179707393451,0,0,0.06588166707032152,0.45222928192775336,0.414652244659839,0.6547263455191629,0,0.152864745158601,0.08455049472423612,0.19505073610588736,0,0.4161234310080076,0.004493972130156579,0.5009773852035837,0.1715102186000608,0.6163950355445852,0,0,0,0.1603347903387772,0,0,0,0,0.003269835948803264,0,0.24445101087796908,0.3484428883052553,0.16552606535356867,0,0,0,0.06680290988251741,0.3066525730392705,0],"fc2":[0.07937091134549187,-0.13029520122923072,-0.09431864531111779,0.03197265440101829,0.3758441189139469,0.07688379227443756,-0.04512434121605866,-0.26268530566425996,-0.10091041462806687,0.06719725755705037,-0.04757570695082791,0.1593938273419649,-0.05991516737892822,0.0912614521308549,-0.06446826770220423,0.029144483939347807],"x_after_mlp":[1.2857753645482939,0.34031377030523435,-0.370774529619755,1.9576204037079872,0.7456270271405658,1.6699325917723338,-0.2892033707496749,-0.2712036222817115,0.32077258354141863,-0.45328771512578886,-0.653683375235941,0.9527897346765966,-0.7503294912213951,1.2638273352783727,-1.6293860668687647,1.539296232462984]}],"logits":[-0.018456180598852873,-0.2453464963238229,0.44281826016533427,0.07136943432634585,-0.10893399153808986,0.24278551912901625,0.17989130117192875,0.23401504099271872,0.16898841357991276,0.2761469601788,0.8707807970109362,0.6065012027963652,0.35713235253986786,0.1326908654299919,0.20859325347820995,-0.0897321953295603,-0.40797021948454637,-0.32600483128570457,0.2037499329917864,-0.0267975417772377,-0.10097606543177813,-0.1197785198856356,0.22553042120298755,-0.10877958520199844,-0.2703420860183452,0.10285038590492923,0.09721550373856835]},{"token_id":4,"pos_id":4,"tok_emb":[-0.019867990465001373,0.053340695870774966,0.046320835075806234,0.03411367875611231,0.023184555170819018,0.04501820856920581,-0.1555436081323037,0.14822741498746517,0.013559067625421058,-0.044970649996024195,-0.00655564287596722,-0.06091469552763412,0.040786496453622804,-0.07160684377033148,-0.00863471509045191,0.0406546670434344],"pos_emb":[-0.07430181535460807,-0.012251536177161057,-0.08463355057786646,-0.06650070811444296,0.06258901428847981,0.01273606435997248,0.1294710637786246,0.03238865014226188,-0.012295509549091617,0.10839445572471526,0.05772065279341852,0.05141987024950926,0.0247600634470102,-0.1224442356862145,0.06797280325068414,-0.028902459512560066],"x_emb_sum":[-0.09416980581960945,0.04108915969361391,-0.03831271550206023,-0.03238702935833065,0.08577356945929883,0.05775427292917829,-0.02607254435367909,0.18061606512972705,0.0012635580763294407,0.06342380572869107,0.0511650099174513,-0.009494825278124862,0.065546559900633,-0.19405107945654598,0.05933808816023223,0.011752207530874335],"x_emb_norm":[-1.1379510441926568,0.49652276301721154,-0.46297211969345486,-0.3913659325921231,1.0364906466655948,0.6979045418469007,-0.3150614872123937,2.1825704972362043,0.01526887753290596,0.7664153634753192,0.6182796699530544,-0.114735782299119,0.7920667950090416,-2.3449196541542205,0.7170434174164068,0.14201406400842803],"layers":[{"x_ln_attn":[-1.138777093009542,0.4968831933213446,-0.46330819528622774,-0.3916500286147391,1.0372430444745866,0.6984111569812103,-0.3152901931572461,2.1841548446351644,0.015279961347350868,0.7669717112263691,0.6187284846823656,-0.11481907002727414,0.7926417633631287,-2.3466218522548243,0.7175639256312679,0.1421171532846793],"q":[0.14292071386966357,-0.01630729672550614,0.23535500911445328,-0.19306834740173215,-0.21194226854013068,-0.5458037197104826,-0.4745995830377556,0.1790910876937317,-0.06940066922818286,0.2337606497397951,-0.12086065086759362,0.6563645641015791,0.15002957182248433,0.4939586731794206,-0.06576271348712451,-0.446657371281576],"k":[-0.3335337529217744,0.3298060931565152,-0.3298911944103023,-0.3130253012061958,-0.27429631805359084,0.5155071377865166,0.05339816237705117,-0.3365642845024413,0.0971413049364529,0.1911160670013491,-0.8380127138765416,-0.20981138189180962,0.27895873460534154,-0.031086669838139902,0.09037926233163211,-0.018809604533483595],"v":[0.15276538875325074,0.3877865935753967,-0.06633124475153904,-0.02261202173711083,0.31142666447349765,-0.09394013884559504,-0.3924040161810075,0.1434669528792463,0.05824931637773846,-0.03706970369740608,-0.49001791074929946,0.38176849043687017,0.5444070527687052,0.1455978090044135,-0.05397650466281811,0.17920045779839594],"heads":[{"attn_logits":[0.06495615363302411,-0.07078852174281629,0.04867777304965727,-0.04242359902811772,-0.03512669767929806],"attn_weights":[0.21459845060804203,0.18735850769079007,0.21113341446009298,0.1927490064070249,0.19416062083405008],"head_out":[-0.17923280387734605,-0.002864615836139256,0.11442335133204443,0.22243085915205435]},{"attn_logits":[-0.09793781651885593,-0.013615826382295597,-0.011379415466560704,-0.023059021290398128,-0.15442456941511873],"attn_weights":[0.19226233609604162,0.2091774141510389,0.20964574429749994,0.20721140835647558,0.18170309709894397],"head_out":[0.13200403404337802,0.20454696275624784,-0.3323392877426403,-0.013710363057083688]},{"attn_logits":[-0.023693304781485416,0.17429902285489926,-0.18266226276679087,0.10613815356916857,0.0007518751205652652],"attn_weights":[0.19100887778114373,0.23283085253147423,0.16293493502824105,0.21748967232684985,0.1957356623322911],"head_out":[-0.14188077893077788,-0.17927023782469545,-0.24816476634116483,0.08526474963798952]},{"attn_logits":[-0.07279495944374237,0.06204582124063793,-0.019453712666727442,-0.11889927313047832,0.014477196152023076],"attn_weights":[0.19064758988850988,0.21816844008008593,0.20109308120759523,0.18205745625904352,0.20803343256476536],"head_out":[0.23847503979418755,-0.037937009600472915,-0.06465541675836974,-0.06277811393944]}],"x_attn":[-0.17923280387734605,-0.002864615836139256,0.11442335133204443,0.22243085915205435,0.13200403404337802,0.20454696275624784,-0.3323392877426403,-0.013710363057083688,-0.14188077893077788,-0.17927023782469545,-0.24816476634116483,0.08526474963798952,0.23847503979418755,-0.037937009600472915,-0.06465541675836974,-0.06277811393944],"x_wo":[0.017567453701850477,0.009007481702886327,-0.006863354377873781,-0.011496677089905417,-0.016307093668781136,-0.05205565471255856,-0.05606678816970342,0.13799006319536714,-0.03438104067314653,-0.03014278733887849,-0.024626265498182493,0.04437669208271324,-0.01080464121850562,0.026611246644651202,-0.0670576119983351,-0.0003743341019821544],"x_after_attn":[-1.1203835904908064,0.5055302447200979,-0.46983547407132864,-0.4028626096820285,1.0201835529968135,0.6458488871343421,-0.3711282753820971,2.3205605604315713,-0.01911216314024057,0.7362725761364407,0.5936534044548719,-0.07035909021640577,0.781262153790536,-2.3183084075095692,0.6499858054180716,0.14163972990644588],"x_ln_mlp":[-1.1133787522774559,0.5023695793852294,-0.46689797881461864,-0.40034384072916074,1.0138051833051143,0.6418109245980765,-0.36880791515233635,2.306052001552211,-0.018992670484474432,0.731669268554523,0.5899417773940102,-0.06991919262419938,0.7763775633377973,-2.3038139294923208,0.645921978130193,0.14075417303021326],"fc1":[-0.45740695937788783,-0.04474384621814306,0.3531797069951886,0.05143608111982308,-0.3536081578658032,0.7633232531978169,-0.3807634732161674,-0.1210554977172266,0.10167815495654707,0.2683004559751572,0.09083078586704155,0.3869289742030934,-0.276644836597395,-0.34243872170092915,-0.27873540436252,0.3719792795403513,0.49070513099684987,0.19100478252838396,0.6244518621366981,0.05349354372113948,-0.37999717233417324,-0.06588743747788776,0.2824927424183512,0.0586439725288852,-0.026319423240608406,0.5244854952851105,0.2445110820033589,-0.6807498099553297,-0.044677871187599826,0.5427870978809123,-0.2947770621468428,0.20551340815668262,0.16067614225135174,0.4611654140366553,0.0452160548288357,0.16521322523388376,-0.4477402854635298,0.028948286382152258,-0.07808171454201845,0.2778777352849259,-0.13650296125402905,-0.20417852528537442,-0.223144987664005,0.5892430385033017,-0.47500780228998063,-0.054332487170239994,0.002454801400961993,0.19055797303333005,-0.21866869030580482,-0.12975345844510197,-0.22628472129376048,-0.27903017523366935,0.0340338463211466,-0.463544415264474,0.626293611750267,0.2159470870005052,-0.12707814135132062,-0.282854040593116,0.10578824009493193,0.33085780564079714,-0.10331092785456339,0.127091267600656,0.5779183377731614,0.20504092092446846],"relu":[0,0,0.3531797069951886,0.05143608111982308,0,0.7633232531978169,0,0,0.10167815495654707,0.2683004559751572,0.09083078586704155,0.3869289742030934,0,0,0,0.3719792795403513,0.49070513099684987,0.19100478252838396,0.6244518621366981,0.05349354372113948,0,0,0.2824927424183512,0.0586439725288852,0,0.5244854952851105,0.2445110820033589,0,0,0.5427870978809123,0,0.20551340815668262,0.16067614225135174,0.4611654140366553,0.0452160548288357,0.16521322523388376,0,0.028948286382152258,0,0.2778777352849259,0,0,0,0.5892430385033017,0,0,0.002454801400961993,0.19055797303333005,0,0,0,0,0.0340338463211466,0,0.626293611750267,0.2159470870005052,0,0,0.10578824009493193,0.33085780564079714,0,0.127091267600656,0.5779183377731614,0.20504092092446846],"fc2":[-0.03638071598251525,0.05615486131491303,-0.05966271887162329,0.06806877579695876,0.2673311650737702,0.25629478782146453,-0.032944796724735215,-0.1811968781912104,-0.15658306043988554,-0.09049789554699969,-0.12593856480755605,-0.037550859220315515,0.014579205059153548,-0.00962553663314188,0.10681135808374197,0.06243139664568777],"x_after_mlp":[-1.1567643064733217,0.5616851060350109,-0.529498192942952,-0.3347938338850698,1.2875147180705837,0.9021436749558066,-0.4040730721068323,2.139363682240361,-0.17569522358012613,0.645774680589441,0.46771483964731586,-0.10790994943672128,0.7958413588496895,-2.327933944142711,0.7567971635018136,0.20407112655213366]}],"logits":[0.2423906283913761,0.3923812284688259,0.12222898883463024,0.27115107411499323,0.5164863342417798,-0.08729996214497451,0.16870102324680084,-0.16462345475870868,-0.1459905088608103,-0.18794864033402786,0.050834679558188996,-0.4602974624553005,-0.6064254628707124,0.32858865121341674,0.20995084373169803,0.2917568128913792,0.3259085806121776,-0.03182150743395251,-0.23165510964355535,0.15459547617227148,-0.23663161293758167,-0.2447473652132501,-0.07971784832765821,0.16257119938887946,0.22245581776697088,0.781337095094031,-0.07642388166357618]},{"token_id":13,"pos_id":5,"tok_emb":[-0.11899023724153093,-0.04190438376643454,-0.041242534602355885,-0.015121607471390396,-0.0118472202804593,-0.10381380353085926,0.16438338916880044,0.15019142493943383,0.07993037765745376,-0.01058482621509372,0.045155529479979375,0.12912708914551016,0.017788638386946585,-0.08456673059917724,0.04626510880817993,0.10499466507816205],"pos_emb":[0.15393633662746153,0.029065568490065204,0.007997558193300242,-0.05196580981737719,0.1878245817442382,-0.03928802972282215,0.04312493752846061,-0.021077794549167216,-0.06665079730221668,-0.08387041273650252,0.008795402375664592,-0.004583890352702552,0.059727083216258414,-0.028343730892567854,-0.11997181909944366,-0.14420115739144815],"x_emb_sum":[0.0349460993859306,-0.012838815276369334,-0.033244976409055646,-0.06708741728876759,0.1759773614637789,-0.14310183325368142,0.20750832669726105,0.1291136303902666,0.013279580355237075,-0.09445523895159624,0.053950931855643966,0.1245431987928076,0.077515721603205,-0.11291046149174509,-0.07370671029126372,-0.0392064923132861],"x_emb_norm":[0.3374669495512052,-0.12398167186899606,-0.3210395716204774,-0.6478487288576769,1.699375449815165,-1.3819035598218334,2.0038631849479818,1.24682249976165,0.12823804523391807,-0.9121338838450891,0.5209925204441891,1.2026868269275055,0.7485526159244466,-1.0903519901101935,-0.7117698146724026,-0.3786086457733314],"layers":[{"x_ln_attn":[0.337622719849912,-0.12403890017561062,-0.3211877592579172,-0.6481477672972786,1.700159859138166,-1.3825414283022393,2.004788141798725,1.2473980166040561,0.12829723822641179,-0.9125549128309974,0.5212330037289715,1.2032419713246987,0.7488981379518195,-1.0908552822264166,-0.7120983582432306,-0.37878340653708475],"q":[-0.22584383234419755,-0.16225557018018238,-0.06216991478242966,-0.03694102614515332,-0.29352745080958,-0.3962928602915452,-0.03699219258345011,-0.22704727095038912,0.1195443433659456,0.005474137584588593,-0.38981956667934864,0.31321090111449257,0.1737484972202805,0.05866914172278627,-0.1280765253521466,0.10550048750383144],"k":[-0.2100424943780555,-0.20194551217430554,0.028487278329771454,1.9101516722467432e-05,-0.7718914050949929,0.3963599251026902,0.4360129145329747,-0.08585880388912749,0.48698159765565097,-0.5864349904584941,-0.44692183969246924,0.02405993836123079,0.054009652637260805,0.18636478052314429,0.06287761802594567,0.10113462483570929],"v":[-0.044453546064967084,0.1932288462783529,-0.06139600801210708,0.508049988264311,0.6489612036212481,0.2660635288737143,-0.15358931710946108,-0.008991194322725143,0.025373021053064545,0.03600565433888306,-0.4329770009966671,0.032341861054474785,0.12217319546150043,0.2038056762334275,0.16653513744512916,-0.17202593579460088],"heads":[{"attn_logits":[0.01274092875689032,-0.06329703652103778,0.048072253791367744,0.006346362855583033,0.026943224280951257,0.03921591440643581],"attn_weights":[0.16673608619786495,0.15452784010269954,0.17273239812247218,0.1656732830105985,0.16912101702718285,0.17120937553918192],"head_out":[-0.15259183327295583,0.03730436539742571,0.0790523145664242,0.27246503615477746]},{"attn_logits":[0.033830071806875785,-0.02346734797749403,0.13621819694645307,-0.05415212466004785,-0.02466880597000331,0.036430820711143126],"attn_weights":[0.16909923977910427,0.15968263919026815,0.18733039674151564,0.1548572250545467,0.1594909024120547,0.1695395968225106],"head_out":[0.22255268773271825,0.21124655645004528,-0.28107248052948036,-0.01687361377162426]},{"attn_logits":[-0.08753803198860423,0.057731185251895495,0.04118094374299034,-0.05328996166246355,0.136808715083229,0.11838019118209656],"attn_weights":[0.14687047939195907,0.16983380191478548,0.16704614331867995,0.1519876361079705,0.1838091246038301,0.1804528146627749],"head_out":[-0.10679833630713761,-0.11999297040674448,-0.28022153289049206,0.09142891452343242]},{"attn_logits":[0.011418084955997047,0.06400648803135939,0.029757708336011247,-0.03141711532086289,0.016542474177181736,0.011467281543131772],"attn_weights":[0.16567920295330266,0.17462517319562498,0.16874573066943072,0.1587321524655948,0.16653038671089943,0.16568735400514747],"head_out":[0.22086925447519803,-0.0047975383031920935,-0.02955358692133223,-0.08085093847508439]}],"x_attn":[-0.15259183327295583,0.03730436539742571,0.0790523145664242,0.27246503615477746,0.22255268773271825,0.21124655645004528,-0.28107248052948036,-0.01687361377162426,-0.10679833630713761,-0.11999297040674448,-0.28022153289049206,0.09142891452343242,0.22086925447519803,-0.0047975383031920935,-0.02955358692133223,-0.08085093847508439],"x_wo":[0.004299229426606743,0.01577941090299882,-0.003697710627336206,-0.005014046260571498,-0.020667187015980224,-0.06222637114117935,-0.07388916826909199,0.1312053326966933,-0.026158402177096866,-0.016374119273180505,-0.040303609547105414,0.035298199127814615,-0.000506644257529356,0.033138306063916566,-0.07718130575785573,-0.012406711615777312],"x_after_attn":[0.341766178977812,-0.10820226096599724,-0.3247372822478136,-0.6528627751182483,1.6787082627991847,-1.4441299309630127,1.9299740166788897,1.3780278324583433,0.10207964305682121,-0.9285080031182696,0.48068891089708365,1.23798502605532,0.7480459716669172,-1.057213684046277,-0.7889511204302584,-0.39101535738910875],"x_ln_mlp":[0.33885067475477065,-0.10727922010299404,-0.32196704640819906,-0.6472933996358156,1.6643877087757184,-1.4318104939580527,1.9135099902710788,1.366272292524529,0.10120883240110085,-0.9205871813087051,0.47658829873621633,1.2274241490770261,0.7416646170344989,-1.0481949128802333,-0.7822208163075179,-0.3876797232747221],"fc1":[0.1892316085146625,0.11208883248800618,0.44998041503898234,-0.08762796349323569,0.06295675842444709,0.6658580399435802,0.1357489445107072,0.40224207965923703,0.5212946008774426,-0.5816157063553303,-0.24753129337036797,-0.020628594770570663,0.016757319876428055,-0.0588441796875355,0.07218974491546133,-0.23196621361517009,0.21097803146697136,0.5371968019717973,0.2925088437963208,0.23612922102379386,-0.4594456180290113,-0.6901050136019017,0.36643493180117404,-0.14208350728294927,-0.43118450979047307,0.23067139353941898,0.24990073429792697,-0.3683529791959516,-0.012422487719271614,0.02257094153267761,-0.7062304619806554,0.058044372861015714,-0.2691814481495911,0.46430549420963135,-0.3019201950388942,0.6184060321298802,0.03055402305679545,-0.27650989553976263,-0.7489651093277345,0.2069229349137892,-0.2610494481033421,-0.10084909962278822,-0.0001126055298281553,0.2025894586591908,0.7464052920252058,0.07364550500720209,0.31098626218044784,0.47644441403894344,0.0788475787880393,0.015374321243536295,0.044165802264456974,0.08370698996068299,0.15074520161121022,-0.31921102474516555,0.15064373092224387,-0.13907989301450968,-0.35441540114306197,0.0926138375922129,-0.18578840562812093,0.2743072672215448,-0.004357011970950016,-0.550283059041569,-0.26937179472918704,0.19301928599935378],"relu":[0.1892316085146625,0.11208883248800618,0.44998041503898234,0,0.06295675842444709,0.6658580399435802,0.1357489445107072,0.40224207965923703,0.5212946008774426,0,0,0,0.016757319876428055,0,0.07218974491546133,0,0.21097803146697136,0.5371968019717973,0.2925088437963208,0.23612922102379386,0,0,0.36643493180117404,0,0,0.23067139353941898,0.24990073429792697,0,0,0.02257094153267761,0,0.058044372861015714,0,0.46430549420963135,0,0.6184060321298802,0.03055402305679545,0,0,0.2069229349137892,0,0,0,0.2025894586591908,0.7464052920252058,0.07364550500720209,0.31098626218044784,0.47644441403894344,0.0788475787880393,0.015374321243536295,0.044165802264456974,0.08370698996068299,0.15074520161121022,0,0.15064373092224387,0,0,0.0926138375922129,0,0.2743072672215448,0,0,0,0.19301928599935378],"fc2":[0.04787104594835142,0.15400287837060025,-0.13925471991873642,-0.12760718858802292,0.06174869962692982,-0.043957407003028165,0.21079481006565998,0.04528911315185902,-0.09444785816897937,-0.10002286632245556,0.053394192328413734,-0.19460713189438786,-0.1257954363754083,-0.04675584161470903,-0.0020325755611759026,0.014624266457587527],"x_after_mlp":[0.3896372249261634,0.04580061740460302,-0.46399200216655,-0.7804699637062712,1.7404569624261146,-1.4880873379660409,2.1407688267445497,1.4233169456102024,0.007631784887841844,-1.0285308694407251,0.5340831032254973,1.0433778941609322,0.6222505352915089,-1.103969525660986,-0.7909836959914343,-0.37639109093152123]}],"logits":[-0.1222634099746449,0.24895508333272998,0.02766485050865397,-0.0670054513084502,0.5615806319511637,-0.21742593390855935,0.10525520027922106,-0.15602857344568852,0.0483722627391402,-0.3725690231249444,-0.14023945900278664,-0.10493761518522401,-0.7537645927520142,0.3885875340130864,0.1240478695407091,-0.412293497296956,0.4452876598429069,-0.1870087679986797,0.05467213740981589,0.2699806823706092,-0.32596624063412416,0.2783043100305577,-0.5969638242613821,0.07474744893430986,0.3075850272825424,0.17591338294217645,0.346622271450615]},{"token_id":6,"pos_id":6,"tok_emb":[-0.1141485426848804,0.03408525597573433,-0.11354879190857962,-0.11369496833705962,0.005547457099351872,0.11768016842100158,-0.10654401248582238,-0.03472668104181972,0.039849031412197554,0.08114437984283887,0.009169546290302939,0.08097261875224403,0.011026030980374468,-0.07136444259432911,0.0345969337571118,0.07069266856810065],"pos_emb":[-0.05884608491762126,0.07169570247265472,0.10731353581538182,-0.013184195598977086,-0.05782564949220015,0.013169451730161387,0.06936770995395064,0.0716951921028637,0.010437658659206551,-0.014087458484979344,-0.03455438423887533,0.10611615006416351,0.10663549109217772,-0.06764144497167068,-0.032421288183553866,0.05947914252051456],"x_emb_sum":[-0.17299462760250164,0.10578095844838906,-0.006235256093197805,-0.1268791639360367,-0.052278192392848276,0.13084962015116297,-0.037176302531871736,0.03696851106104398,0.05028669007140411,0.06705692135785953,-0.02538483794857239,0.18708876881640754,0.11766152207255219,-0.1390058875659998,0.002175645573557934,0.1301718110886152],"x_emb_norm":[-1.6646145233099299,1.0178612027619194,-0.05999780451646643,-1.220875479894348,-0.5030389643630038,1.2590805916452852,-0.3577233234069664,0.35572388154594753,0.48387603581762356,0.6452450386911935,-0.2442617467760692,1.8002332560035084,1.1321801213778846,-1.337563035770276,0.020934819014386135,1.2525584769115223],"layers":[{"x_ln_attn":[-1.6653773541022767,1.0183276506133163,-0.0600252992740319,-1.2214349616221853,-0.5032694883710506,1.2596575813518531,-0.35788725467298277,0.35588689654228245,0.48409777816976074,0.6455407304427854,-0.2443736828304674,1.8010582358062532,1.1326989573287765,-1.3381759910557804,0.02094441266165567,1.2531324777760007],"q":[0.2724051362179386,-0.13501755538926363,0.31707334008676147,0.14102577805716632,-0.019337680324841428,-0.7123385455493001,-0.08213345763050309,0.19797309397025228,-0.15538349590660502,0.037356703974813166,-0.1273942455779338,0.593910460805341,-0.41076299897366764,0.6936482588466072,0.6223941699679054,-0.49895456477081856],"k":[-0.5242151619680453,-0.4549164081086903,-0.29506949796446924,-0.5667873828344941,-0.08054106801928218,-0.08292091972275846,-0.14033922260315082,0.23818991919125865,-0.017024248519982972,0.162427098507126,-0.2571185640167494,0.1124014630962886,-0.4843868585758482,0.1703148328704067,0.14961504555851524,0.18257162733824805],"v":[-0.08567138425682273,0.650086291888735,0.4354011371306199,0.08553976745103525,-0.2451849053016168,-0.11603079482795732,-0.5004965564203123,0.290221935371975,0.030843170598739207,0.02375764945853967,-0.35733387687466833,0.6585790004441192,0.1157969405490324,0.41209553415662503,-0.20080160854992068,0.2549329487329265],"heads":[{"attn_logits":[-0.0021691083128274405,0.015528212908283275,0.0710171523831848,0.08252290914268126,-0.1420651296897405,-0.010457607310371295,-0.12743375210432592],"attn_weights":[0.14439129296231593,0.14696937736266988,0.15535505695049412,0.15715285713991103,0.12554081253887786,0.14319945198492076,0.12739115106081028],"head_out":[-0.1549973264775477,0.10418847563303506,0.12517758189304995,0.2541694024491733]},{"attn_logits":[-0.026443246220353735,0.08387368123956616,-0.06284747877654563,0.058213718054378125,-0.21646389933415164,-0.16011242230856107,0.05965349281284485],"attn_weights":[0.14365836117080616,0.16041350960380946,0.13852263700236622,0.15634966685905388,0.11879714038133675,0.12568374768930718,0.1565749372933202],"head_out":[0.13616559816083088,0.16303561702168543,-0.3540540822400213,0.03521741301057283]},{"attn_logits":[-0.04085170167827794,0.153854128918313,-0.1351043183366758,0.06122566143776796,-0.012902933125353386,-0.01317573087297905,0.05411242925817154],"attn_weights":[0.13534546132391498,0.16443844624325527,0.123171521282131,0.1498909224237805,0.13918155767627974,0.13914359443921284,0.14882849661142575],"head_out":[-0.09288883700583363,-0.11622352831822208,-0.28861697304129513,0.16476210787606538]},{"attn_logits":[-0.14166486200148035,-0.23143806109804285,-0.03688916175432306,-0.033786260282212016,-0.03525623840911566,0.04787975939602897,0.15956568560270226],"attn_weights":[0.12802443740891817,0.11703206579330963,0.1421662095927457,0.14260802243014623,0.14239854575723696,0.1547430167213905,0.17302770229625286],"head_out":[0.2034143117287428,0.06875724184621104,-0.05065609626636192,-0.02249710154736307]}],"x_attn":[-0.1549973264775477,0.10418847563303506,0.12517758189304995,0.2541694024491733,0.13616559816083088,0.16303561702168543,-0.3540540822400213,0.03521741301057283,-0.09288883700583363,-0.11622352831822208,-0.28861697304129513,0.16476210787606538,0.2034143117287428,0.06875724184621104,-0.05065609626636192,-0.02249710154736307],"x_wo":[-0.0099166686060526,-0.0019547156823440702,-0.006253655553415508,-0.017042023134002743,-0.029971573290336312,-0.06873842963028648,-0.0870867956532333,0.1509388563162949,-0.04391063242454418,-0.02903955596889434,-0.034021654940618415,0.04298908701905364,-0.028281484794104667,0.03301416341744495,-0.10697837029868099,-0.024527132726222735],"x_after_attn":[-1.6745311919159824,1.0159064870795753,-0.06625146006988193,-1.2379175030283507,-0.53301053765334,1.1903421620149988,-0.4448101190601997,0.5066627378622424,0.4399654033930794,0.6162054827222992,-0.27828340171668764,1.843222343022562,1.10389863658378,-1.304548872352831,-0.08604355128429485,1.2280313441852997],"x_ln_mlp":[-1.6738627732235263,1.0155009700673934,-0.06622501462979279,-1.2374233663991034,-0.5327977770858668,1.189867015923155,-0.44463256524716305,0.506460494484279,0.43978978343384445,0.6159595134235284,-0.2781723199832415,1.8424865882785615,1.1034579959514457,-1.3040281386360075,-0.08600920548152845,1.2275411537909147],"fc1":[-0.5975082338998216,0.29411307482573545,0.1653153674295057,0.2797502086633291,-0.48443606299716613,0.3688951462128255,-0.4427628552738486,-0.33102115872952853,0.13797582691322152,0.1590603615512267,0.2778608734106036,-0.18211322822884657,-0.29843609482067757,-0.10564720622411986,-0.3963660660485594,0.04345850786400404,-0.03371028333921744,0.31537926416652207,-0.25319108051560857,-0.6951283544223332,-0.2923646727749496,0.2863809802980196,0.5471150800192983,-0.35516993076390013,0.22532497738425902,0.27518706883986116,0.4753641320928136,-0.5642275039491595,-0.3738992839351136,0.9121417297140231,-0.08174737139258448,-0.009740812934738753,0.3366122890315303,0.26082166878672913,0.30957784048914205,-0.3166916697643896,-0.3209044273959901,0.08610600954752923,0.10352580764398657,0.44647062105762125,0.14759896238336717,-0.8337504375838869,-0.01207260728782275,0.04882040443509005,-0.8926283996229375,-0.5341540918432587,0.21938255392395428,-0.11874923177223567,0.04234548020870593,-0.07331070544356846,-0.24002577721107152,-0.09158742879363901,-0.21135508071820305,-0.07205988165738898,0.6641896706337351,-0.015226433608642828,-0.08087838858765388,-0.2550855913914102,-0.6086660076322172,0.1116304749381781,-0.06631598829242664,0.25524577270075743,0.2383315548026216,0.23764968568374184],"relu":[0,0.29411307482573545,0.1653153674295057,0.2797502086633291,0,0.3688951462128255,0,0,0.13797582691322152,0.1590603615512267,0.2778608734106036,0,0,0,0,0.04345850786400404,0,0.31537926416652207,0,0,0,0.2863809802980196,0.5471150800192983,0,0.22532497738425902,0.27518706883986116,0.4753641320928136,0,0,0.9121417297140231,0,0,0.3366122890315303,0.26082166878672913,0.30957784048914205,0,0,0.08610600954752923,0.10352580764398657,0.44647062105762125,0.14759896238336717,0,0,0.04882040443509005,0,0,0.21938255392395428,0,0.04234548020870593,0,0,0,0,0,0.6641896706337351,0,0,0,0,0.1116304749381781,0,0.25524577270075743,0.2383315548026216,0.23764968568374184],"fc2":[0.038908587401975045,-0.01571246418492342,-0.17982278447178848,0.08051509052867004,0.3435560148842798,0.044002333217127904,0.016694987903039447,-0.06361885942232,-0.06467838635667168,-0.10405579896880343,-0.03487879999604422,-0.09199458269232688,-0.04777592630409849,0.016481608703775748,0.11285396136805895,-0.01045589841879758],"x_after_mlp":[-1.6356226045140074,1.000194022894652,-0.24607424454167043,-1.1574024124996807,-0.18945452276906027,1.2343444952321267,-0.4281151311571602,0.4430438784399224,0.3752870170364077,0.5121496837534958,-0.31316220171273185,1.751227760330235,1.0561227102796815,-1.288067263649055,0.0268104100837641,1.217575445766502]}],"logits":[0.20879783314094308,-0.1814126832577167,0.13058576291384696,-0.030818266350775544,0.2630619898094368,-0.31011099077275767,0.17261718770930298,-0.13277384653868424,0.1464086801554837,-0.26018284802378316,0.23510398017707235,-0.2064938437564692,0.12887084663430354,0.10218671725228598,0.19462320510268294,0.2404171764867818,0.32530465151825083,-0.04063313299959764,-0.4124571696279808,0.363321237095516,-0.03574484846105626,-0.23406268613286207,-0.0025112548804401905,0.2797791277807922,-0.2648845478633978,0.5896975976697265,0.06900687871074015]}],"positions":[{"token_id":26,"target_id":24,"probs":[0.03156561234767024,0.03989814637170121,0.054062216518212844,0.019491113937640234,0.04461494422826997,0.031184057430077232,0.029136640166798254,0.03754128913510591,0.03261878793343284,0.04872790172411538,0.049741558309249846,0.04612487406375372,0.022128711377271706,0.03419904783898089,0.061665188660695334,0.02859175241063206,0.032129170289030985,0.018373405987628707,0.05454658153634846,0.029456371274007874,0.042665672440197096,0.02699234559212658,0.029342736243926183,0.045417921794480814,0.02656262446278745,0.05061002299189877,0.032611304933959355],"loss_t":3.6282501466505988},{"token_id":24,"target_id":20,"probs":[0.04598133996710658,0.04080025303245176,0.035586866881359897,0.05490879977455031,0.04077910041009021,0.02538124719160268,0.032484070096514155,0.030073063630333394,0.04161287558231677,0.02637583788399296,0.03009155588429431,0.030462873691595223,0.01623565578527999,0.043950917351769245,0.0403927985218625,0.036918781959740826,0.06302908610716297,0.049201757505620905,0.02591412103683961,0.032244843077201664,0.040172145874084145,0.04558230660866494,0.034214327031875276,0.04093068833363187,0.035501432338818625,0.03014989997785136,0.03102335446338781],"loss_t":3.2145814122198564},{"token_id":20,"target_id":7,"probs":[0.032564588603114855,0.03490009610864328,0.05245590829984944,0.019072184495545864,0.06743812050050371,0.03251484800740137,0.059901161106430505,0.028414895439496428,0.05170143825663363,0.035364310882184016,0.031950589999984944,0.028393774970709593,0.026188114666928265,0.03982429061568354,0.03993168458168727,0.0222616256055026,0.06969469284524094,0.03107672261299118,0.02857570350936448,0.04018070633057475,0.0223072787214934,0.038759237245832724,0.021315342341215113,0.04400649324703018,0.03424199669406865,0.0350256873148775,0.031938506997012076],"loss_t":3.5608417840041575},{"token_id":7,"target_id":4,"probs":[0.03169823007143462,0.025263749189790945,0.05027637507631591,0.0346773404452252,0.028956162103254978,0.041161466737123585,0.038652379071666805,0.04080203947149944,0.038233245562216,0.04255783551132577,0.07713042524043316,0.05921756648331178,0.04614780413397314,0.03687035688115284,0.039777852187287,0.02951754495772386,0.021471936570535057,0.023306031621086378,0.03958566109809962,0.03143492338049916,0.029187512415015132,0.028643842721507235,0.04045731417948225,0.028960633463346885,0.02464009366990132,0.035786381360905346,0.03558529639588666],"loss_t":3.5419722443055854},{"token_id":4,"target_id":13,"probs":[0.042405752130033426,0.04926799179583695,0.03760444934068697,0.04364306805392975,0.05577801092801172,0.03049593591188475,0.0393932472230142,0.028226745016437446,0.0287576229799986,0.0275759701776938,0.035013302742933544,0.021001543302827788,0.018146322538419378,0.04622320937199632,0.04105219196114017,0.0445516950289388,0.046099493764796204,0.032235614465968634,0.02639668089160982,0.038841484525733765,0.026265644045283622,0.026053341248587315,0.03072803837063084,0.03915251214196325,0.04156877173238281,0.07269193791846223,0.03082942239079782],"loss_t":3.0742732396794525},{"token_id":13,"target_id":6,"probs":[0.03127216916856186,0.04532900122865283,0.03633047056053662,0.03304884097103999,0.06196517786896752,0.02843344275348979,0.039261608101615705,0.030233886793960146,0.03709062383211658,0.024347347830016002,0.030715041600965394,0.03181870526867793,0.016630317005402594,0.05212160166140685,0.040006415052879135,0.023399120840506892,0.05516229221889458,0.029311595249387878,0.03732502769593887,0.04629216065301122,0.025508856546215767,0.04667908744519197,0.019453521813477544,0.03808191117072425,0.04806609175124687,0.04213612003709765,0.0499795648800178],"loss_t":3.237508130666618},{"token_id":6,"target_id":26,"probs":[0.042233111996854644,0.028588199890517946,0.03905584275956973,0.033234498848540184,0.044588176122313215,0.025135865583530308,0.040732402764226766,0.030013067740357106,0.03967873511867992,0.02642271023881788,0.043358844373813585,0.027880091866282382,0.03898892265659771,0.0379622954428135,0.041638696107937766,0.04358983152236837,0.04745165371664451,0.032909902216270284,0.02269057307232022,0.049290332269048595,0.033071169020324635,0.027121968318948395,0.034188709904762894,0.04533982804407406,0.02629877017912321,0.06181242044677665,0.0367233797784855],"loss_t":3.3043416755676898}],"loss":3.3659669475848504}